0.0
0.0
0.0
0.0
0.0
0.0
0.0
4.5e-06
-3.743e-05
-0.002285
-0.002758
-0.0002356
-7.14e-05
1.1e-05
-0.001137
-0.0003762
-2.25e-05
0.0
0.008514
-1e-07
0.0
1.37e-05
1.33e-05
0.0
0.0
0.0
0.0
0.0
0.0
0.0
0.0
0.0
-1.64e-05
0.0
-0.001021
-0.04514
-0.0441
-0.0255
-0.02248
-0.1055
-0.06018
-0.00796
-0.02216
-0.0287
-0.0195
-0.005146
-0.0001432
-0.04416
-0.03818
-0.02069
-0.0007625
0.0
0.0
0.0
0.0
0.0
0.0
0.0
6e-08
6.74e-06
-0.002483
0.002544
-0.02701
-0.02151
-0.1284
-0.1793
-0.3513
-0.4832
-0.2544
-0.1642
-0.0706
-0.0565
-0.2542
-0.265
-0.1838
-0.2313
-0.1483
-0.1804
-0.183
-0.0203
-0.006363
-0.000477
0.0
0.0
0.0
0.0
0.001014
0.010605
-0.002565
0.0338
-0.1748
-0.3594
-0.571
-0.4028
-0.999
-0.9116
-0.5933
-0.3452
-0.2607
-0.1597
-0.3345
-0.6484
-0.552
-0.6196
-0.599
-0.4512
-0.3198
-0.0753
-0.12213
-0.01736
-1.19e-05
0.0
0.0
-0.0
-0.0002878
0.02315
-0.06024
-0.00475
-0.2041
-0.2869
-0.1098
-0.4211
-0.685
-0.7007
-0.35
-0.1473
-0.1765
0.06168
-0.0007877
-0.07446
-0.408
-0.8276
-0.638
-0.3613
-0.1837
-0.3245
-0.4558
-0.1542
0.0531
-0.0006337
0.0
-8e-06
-0.0002177
0.00857
-0.1338
-0.1733
-0.2124
-0.3457
-0.3276
-0.05502
-0.2329
0.2328
-0.3196
-0.392
-0.2493
0.274
0.5083
-0.0985
-0.0704
-0.782
-0.8438
-0.2527
-0.2115
-0.5674
-0.7476
-0.1868
0.06616
-0.002182
0.0
-0.0005007
0.001091
0.019
-0.1364
-0.146
-0.1771
-0.566
-0.443
-0.3926
0.00955
-0.2234
-0.3633
-0.1101
0.2024
0.501
0.5894
-0.1707
-0.737
-1.002
-0.5034
0.12164
0.1953
-0.3923
-0.824
-0.1752
0.04324
-0.004284
0.0
-0.001913
0.004185
0.01573
0.041
0.04276
-0.0427
-0.733
-0.5566
0.4058
0.159
0.5425
-0.593
-0.394
-0.07007
0.0753
-0.03217
0.9346
0.4663
-0.4182
-0.546
-0.2954
0.1598
-0.546
-1.05
-0.4077
-0.1704
-0.03047
0.0
-0.007706
-0.004406
0.01158
0.2554
0.3032
-0.4807
-0.2444
0.08307
-0.00571
-0.2937
0.6646
-0.728
0.09546
0.2319
0.1559
0.2678
1.905
0.8657
-0.09515
-0.1611
-0.285
-0.2673
-0.2773
-0.831
-0.603
-0.3313
-0.197
0.0
-0.003548
0.1175
0.2478
0.3516
0.1466
-0.6387
-0.2617
-0.066
0.02907
0.1774
0.3247
0.04077
0.02306
-0.0351
-0.000648
0.511
1.765
1.296
-0.1664
-0.535
0.3105
-0.674
-0.736
-0.0573
-0.7188
-0.0908
-0.3616
0.0
-0.002579
0.09015
0.4006
0.2805
-0.2568
-0.5825
-0.4314
-0.3604
-0.01127
0.682
-0.386
-0.1632
-0.6
0.331
0.04086
0.591
1.445
2.592
0.2
-1.309
0.06995
-0.2249
-0.8237
-0.4688
-0.3687
0.2378
-0.2013
0.0
-0.002195
0.04416
0.3079
0.12244
-0.569
0.3054
0.05627
-0.943
0.14
-0.121
-0.4858
-0.245
-0.112
0.7583
1.001
0.2866
1.2
1.773
0.3127
-1.05
-0.2372
-0.252
-0.5176
-0.2192
-0.681
0.014305
-0.2021
-2.176e-05
-0.0093
0.0613
0.1462
0.07733
0.0895
0.043
0.03693
-0.758
-0.2725
0.0938
-0.5015
-0.3845
0.563
0.568
0.668
0.6245
1.272
2.248
0.2434
-0.8984
-0.7715
-0.383
-0.3914
-0.58
-0.4053
0.11414
-0.358
-1.514e-05
-0.004875
0.0429
0.1836
-0.402
-0.2367
-0.1648
0.535
0.295
-0.0984
-0.817
-0.6265
0.8066
0.821
0.7676
1.271
0.968
1.491
0.967
-0.213
-0.447
-0.6255
-0.3123
0.09314
-0.6123
-0.1968
-0.12286
-0.2615
3.61e-05
0.02734
0.0404
0.335
0.3872
0.2769
-0.01563
-0.07947
0.0007744
-0.1793
-0.8296
0.05048
0.69
0.565
1.034
0.665
0.597
0.5986
0.657
0.3086
0.0674
-0.752
-0.2993
-0.609
-0.1998
-0.274
0.2383
-0.0179
1.5e-06
0.02605
0.04288
0.298
0.09503
-0.632
0.382
0.4724
-0.2632
-0.2761
-0.6553
0.0412
0.4902
1.226
0.7036
0.3176
0.497
0.4058
0.088
-0.1351
0.12494
-0.304
-0.69
-0.5176
-0.04318
-0.256
-0.4026
0.04282
0.0
-0.01756
-0.0828
-0.1528
-0.132
-0.976
-0.1791
-0.057
-0.3625
-0.8687
-0.9956
0.612
0.129
0.3374
1.027
0.8877
0.5264
0.1688
-0.3816
0.638
0.3127
-0.2067
-0.08685
-0.0875
-0.0953
0.233
-0.4421
-0.01895
0.0
-0.009254
-0.02292
-0.1165
0.1345
-0.2559
-0.3875
-0.07965
0.0421
-0.2456
-0.5146
-0.459
0.11475
0.604
0.2307
0.6333
0.2568
-0.3213
-0.521
-0.7554
0.3362
0.02513
-0.3435
-0.837
-0.1675
0.2418
-0.2737
-0.1469
0.0
-0.002913
0.152
0.4976
-0.4062
-0.4407
-0.06177
-0.069
-0.4072
-0.8237
-0.2712
0.012924
0.9946
0.3062
0.803
0.124
0.08075
-0.6543
-0.5073
-0.1287
0.1539
0.0732
0.1697
-0.5864
0.3071
-0.2769
-0.767
-0.423
0.0
-0.00966
0.2262
0.1879
-0.03485
-0.05124
0.1729
-0.01712
0.219
-0.2756
-0.357
0.2937
1.02
0.799
0.804
0.03928
-1.329
-0.8784
-0.444
-0.1924
0.1978
0.1293
-0.0745
-0.0856
0.4504
-0.1831
-0.515
-0.1985
0.0
-0.013855
0.1388
0.1686
0.242
-0.00878
0.195
-0.2128
-0.5557
-0.2798
-0.9043
0.729
0.9033
0.682
-0.2607
-0.985
-0.8994
-0.5244
-0.351
0.4194
0.12415
0.3403
0.4602
0.3499
0.6714
0.4258
-0.0911
-0.1606
0.0
-0.00572
0.01921
0.1862
0.2925
-0.249
-0.1265
-0.2301
0.0936
-0.2798
-0.7773
0.6104
1.047
0.856
-0.232
-1.254
-1.231
-0.662
-0.445
0.2566
0.3735
0.4304
0.46
0.535
0.5703
0.1877
0.05917
-0.01808
0.0
-0.0001594
-0.02359
0.2368
0.1111
-0.1367
-0.2253
-0.04675
-0.167
-0.05673
-0.07404
0.5947
0.689
0.1807
-0.5396
-0.759
-0.868
-0.7085
-0.491
0.3745
0.431
0.3215
0.1971
0.45
0.244
-0.04776
-0.05624
-0.03143
0.0
-1.323e-05
-0.014336
0.1329
0.1384
0.05634
-0.209
0.0834
-1.019
-1.135
-0.6787
-0.0836
0.1537
0.1434
-0.5454
-0.7676
-0.2588
-0.0167
-0.02205
0.10034
0.547
0.4705
0.1912
0.2964
0.2222
0.0746
0.004642
-0.00731
0.0
0.0
-0.008644
0.1415
-0.03387
-0.0586
-0.992
-0.636
-0.6934
-1.817
-1.129
-0.09576
-0.04294
-0.08234
-0.2087
-0.04065
0.4023
0.595
0.406
0.1742
0.354
0.3457
0.1929
0.10077
0.0052
-0.04187
-4.137e-05
0.0
0.0
0.0
-1.657e-05
0.01698
-0.01539
-0.0445
-0.7334
-0.683
-0.5845
-1.636
-1.376
-0.4192
-0.01539
0.12396
0.1931
0.413
0.6074
0.4558
0.2554
0.2192
0.12213
0.1065
0.04874
0.02463
0.00876
0.001903
-5.865e-05
0.0
0.0
0.0
0.0
0.0002673
-0.03848
-0.0636
-0.305
-0.1489
-0.1189
-0.3972
-0.5713
-0.355
-0.07135
0.0355
0.1339
0.1356
0.2505
0.1665
0.06155
0.0558
0.01942
0.009026
0.0006614
-0.001096
7.75e-06
-1.18e-05
0.0
0.0
0.0
0.0
0.0
0.0
-8.184e-05
0.002144
-0.04996
-0.0661
-0.01354
-0.109
-0.04312
-0.0174
0.0003848
0.01935
0.00871
0.02463
0.061
0.004173
0.01614
0.01389
0.0001379
-2.59e-05
-4.79e-05
0.0
0.0
0.0
0.0
0.0
0.0
0.0
0.0
0.0
0.0
0.0
0.0
-7.4e-06
4.447e-05
-0.00010085
-0.000132
-0.000921
-0.000149
0.0001382
-0.002312
-0.002335
-0.00902
0.0
-0.002771
7e-07
0.0
2.03e-05
1.967e-05
0.0
0.0
0.0
0.0
0.0
0.0
0.0
0.0
0.0
1.1e-06
0.0
0.0001819
0.03622
0.011566
-0.01143
-0.01955
-0.01081
-0.03424
-0.01529
-0.0081
0.0001993
0.0004723
0.0001813
1.4e-05
0.008835
0.01852
0.01106
0.0004127
0.0
0.0
0.0
0.0
0.0
0.0
0.0
-1e-07
0.0
-6e-07
0.001309
0.00673
-0.11017
-0.1661
-0.04977
-0.0411
-0.11017
-0.11475
-0.03998
-0.01704
-0.0009637
0.01895
0.02118
0.01484
-0.004253
0.04965
0.1819
0.2844
0.3213
0.2012
0.01942
0.0
0.0
0.0
0.0
7.3e-06
0.00955
0.01052
0.02089
0.005047
-0.344
-0.3037
-0.2393
0.03102
-0.1121
-0.0762
0.0399
0.004864
-0.05722
0.022
0.113
0.11444
0.05713
0.1632
0.2964
0.2922
0.347
0.2286
0.03296
-0.0004737
0.0
0.0
4.3e-06
3.684e-05
-0.001691
0.001035
0.00813
-0.04553
-0.1381
-0.172
-0.1006
0.08276
-0.3574
-0.4614
-0.307
-0.36
-0.2417
-0.02216
0.4092
0.4158
0.2404
0.532
0.442
0.3457
0.3508
0.11914
-0.0958
-0.0208
-9.024e-05
0.0
0.000655
0.00234
0.0589
-0.01261
0.002132
-0.2063
0.03952
-0.2058
0.00789
0.0168
-0.287
-0.3638
-0.483
-0.5635
-0.1991
-0.04974
0.4355
0.6064
0.6553
0.961
0.9297
0.3489
0.141
-0.337
-0.256
-0.0741
-0.000481
0.0
0.03436
0.03537
0.1134
-0.01359
-0.1339
-0.299
-0.06824
-0.189
0.0429
0.11804
-0.4053
-0.6553
-0.2695
-0.4197
-0.362
-0.1344
0.319
0.542
0.739
1.22
1.0205
0.624
-0.1051
-0.125
-0.02994
-0.2017
-0.0003064
0.0
0.07135
0.09845
0.186
0.1742
8.565e-05
-0.1254
-0.5747
-0.3738
0.00938
-0.05444
-0.2069
-0.5566
-0.3848
-0.2551
-0.1333
-0.2747
-0.2627
0.3042
0.716
0.9624
0.7134
0.1431
-0.137
0.2566
-0.3325
-0.3857
-0.000625
0.0
0.0666
0.1561
0.4065
0.3662
-4.64e-05
-0.1526
-0.0365
-0.193
0.32
-0.09625
-0.2742
-0.458
-0.4602
-0.4607
-0.2421
-0.515
-0.438
0.11383
0.759
0.931
0.2822
-0.0213
0.4102
0.05328
-0.0409
-0.5195
-0.004005
0.0
0.0834
0.2952
0.5073
0.4998
-0.106
-0.2278
0.2296
-0.2157
-0.4402
-0.326
-0.1103
-0.2177
-0.1445
-0.1768
0.06165
-0.02002
-0.10785
0.1417
1.22
0.948
0.418
0.1026
0.689
0.5234
0.1267
-0.5527
-0.02115
0.0
0.0912
0.3403
0.4622
0.471
0.04068
0.05988
-0.2058
-0.01662
-0.2202
-0.0739
-0.3435
-0.2416
-0.4697
-0.2551
-0.0364
0.0687
0.2144
0.271
0.7153
0.9043
0.6294
0.252
0.1888
0.1357
0.5083
-0.3762
-0.002403
0.0
0.07983
0.3416
0.4426
0.3696
0.2808
-0.007996
-0.0998
-0.11255
-0.3245
-0.2112
-0.08014
-0.125
-0.1412
-0.194
0.0834
0.2101
-0.1283
-0.12195
0.4358
1.052
0.7026
0.4663
0.5366
0.514
-0.02477
-0.4045
0.08984
0.01727
0.1575
0.4253
0.549
0.4092
0.3098
0.0976
-0.2563
0.0668
-0.4585
-0.4138
-0.4915
-0.0583
0.4617
0.4692
0.748
-0.02473
-0.2441
-0.3103
0.2361
0.444
0.3801
0.506
0.6636
0.6455
-0.3562
-0.0787
0.05173
0.03873
0.1057
0.4302
0.677
0.4578
0.271
0.3164
-0.3457
0.0286
-0.03665
-0.411
0.2369
0.69
0.71
0.3335
0.7144
0.1163
-0.6016
-0.6445
0.2756
0.2556
0.2252
0.4375
0.533
0.2625
0.2185
-0.2186
-0.0524
0.0010195
0.0852
0.2615
0.4746
0.4756
0.3481
0.2285
0.2438
-0.2573
-0.3909
0.267
0.4
0.779
-0.03983
-0.1153
-0.119
-0.1792
-0.0955
-0.06122
-0.0636
0.5273
0.3088
0.3914
0.2473
0.5264
0.2595
-0.593
-0.0768
4.25e-05
0.1335
0.2515
0.4019
0.3967
0.555
0.1493
-0.04178
0.0004811
-0.1072
-0.3005
-0.748
-0.476
-0.384
-0.6016
-0.658
-0.7236
-0.3276
-0.00475
0.2435
0.3281
0.385
0.2727
0.6875
0.4756
-0.093
-0.1438
-0.03998
0.0
0.0821
0.2393
0.3162
0.402
0.969
0.0419
-0.6006
0.1567
0.01639
-0.1396
-0.3796
-0.6895
-0.2297
-0.2957
-0.3748
-0.8857
-0.3855
0.2122
0.4014
0.5435
-0.08887
0.1824
0.5596
0.74
0.311
0.1117
-0.02667
0.0
0.01619
0.1757
0.2646
0.3376
0.946
-0.263
0.05457
0.1475
-0.549
-0.1505
-0.5674
-0.5703
-0.3657
-0.633
-0.77
-0.8496
0.05557
0.251
0.4465
0.4888
0.1355
0.652
0.393
0.2969
0.2283
0.04486
-0.02762
0.0
0.0235
0.1337
0.1904
0.2095
0.508
-0.11066
-0.1827
-0.45
-0.0875
-0.2793
-0.255
-0.5957
-0.1283
-0.7666
-0.5234
0.1189
-0.2683
0.2156
0.2487
0.891
0.901
0.5425
0.2394
-0.02014
0.06793
0.04752
0.006027
0.0
0.02841
0.03102
0.05334
0.1523
0.566
0.2773
0.0932
0.4502
-0.06683
-0.07086
-0.0951
-0.2922
0.00795
-0.8276
-0.799
-0.249
0.487
0.331
0.2223
0.6787
0.6904
0.4495
0.3152
0.252
0.04037
-0.1461
-0.006706
0.0
0.01778
-0.03412
-0.08795
0.01582
0.34
0.558
-0.2515
-0.1405
-0.1193
0.09064
-0.4595
-0.02908
-0.09985
-0.591
-0.714
-0.4082
0.07526
0.1573
0.1605
0.835
0.618
0.7373
0.3748
-0.009285
-0.2925
-0.09875
-0.03073
0.0
-0.00202
0.00577
-0.1111
-0.2725
0.1351
-0.2075
-0.04745
0.2063
0.292
-0.1641
-0.4238
-0.342
-0.605
-0.225
-0.1527
-0.2593
0.02452
0.5947
0.6963
0.764
0.599
0.516
0.2715
-0.2612
-0.2566
-0.1255
-0.02902
0.0
0.008156
0.03018
-0.077
-0.2314
0.00915
0.03122
0.1746
0.2764
0.2347
-0.02504
-0.12396
-0.3252
-0.3855
-0.2917
0.0371
0.5273
1.021
1.566
1.284
0.994
0.52
0.3193
0.1587
0.1255
0.0913
-0.04163
-0.09393
0.0
0.01108
0.01607
-0.02444
-0.08307
-0.1262
0.05624
0.1864
-0.03143
0.632
1.008
0.6465
0.363
0.3584
0.526
0.671
1.037
1.001
1.314
1.065
0.745
0.3474
0.3691
0.283
0.11865
0.0403
-0.007275
-0.02206
0.0
0.0
-0.006134
-0.00943
0.004276
-0.1564
-0.05374
0.2563
0.549
0.9243
1.135
0.9194
0.6367
0.55
0.635
0.644
0.9214
0.648
0.612
0.4219
0.2194
0.02054
0.183
0.1415
0.03802
0.02414
-3.81e-05
0.0
0.0
0.0
-0.00212
-0.00205
0.04248
-0.0245
0.05652
0.2189
0.3757
0.5474
0.726
0.4902
0.1906
0.2097
0.1516
0.2389
0.6006
0.4683
0.2198
0.1765
0.0904
-0.00853
0.0949
0.0777
0.00825
-0.0003629
3e-07
0.0
0.0
0.0
0.0
-3.165e-05
0.014755
0.02092
0.02707
-0.00165
0.2222
0.1466
0.1332
0.1052
0.05392
0.1074
0.0972
0.1306
0.265
0.3196
0.0913
0.013565
0.0386
0.02907
0.0007143
0.000896
0.001003
0.001063
0.0
0.0
0.0
0.0
0.0
0.0
0.002707
0.001205
0.0002904
0.00679
0.03772
0.006737
0.00928
0.01065
0.01262
0.01428
0.002226
0.00928
0.006596
0.04285
0.0106
0.0001358
-5.07e-06
3e-07
5.4e-07
0.0
0.0
0.0
0.0
0.0
0.0
0.0
0.0
0.0
0.0
0.0
0.0
3.3e-06
0.0003986
0.005066
0.00606
0.000986
0.001893
0.0001632
-5.955e-05
0.000437
0.00261
0.0
0.01173
-6.31e-05
0.0
-6.39e-05
-6.19e-05
0.0
0.0
0.0
0.0
0.0
0.0
0.0
0.0
0.0
7.57e-06
0.0
-0.0001225
-0.0404
0.03253
0.05405
0.02927
0.01611
0.001899
-0.03232
-0.03558
-0.00917
-0.005157
-0.001316
-0.001035
-0.001849
-0.002281
-0.0001738
-2.32e-05
0.0
0.0
0.0
0.0
0.0
0.0
0.0
7.6e-06
0.000847
0.002676
0.0004838
-0.002363
0.08435
0.03458
0.2551
0.1914
0.04956
0.04288
0.014565
-0.0456
-0.0702
-0.1055
-0.161
-0.1631
-0.1738
-0.1384
-0.1381
-0.0968
-0.0467
-0.0492
-0.00547
0.0
0.0
0.0
0.0
0.003609
0.01102
-0.0127
0.03485
0.03516
-0.07837
0.00871
0.3528
0.0817
-0.0273
-0.04803
-0.1311
-0.1862
0.1268
0.366
0.1309
-0.3528
-0.543
-0.616
-0.523
-0.1836
-0.1935
-0.176
-0.02557
-0.000177
0.0
0.0
-4.58e-05
-0.0008373
-0.001629
-0.1084
0.00816
-0.0513
-0.1683
0.05078
0.4702
0.1012
-0.2742
-0.748
-1.059
-0.789
0.2051
0.8984
0.8325
0.615
0.5493
0.1378
-0.02768
-0.264
-0.301
-0.3115
-0.08716
-0.01348
5.29e-05
0.0
-0.0001094
0.0013075
-0.015236
-0.01342
0.03934
-0.02434
-0.2305
0.0465
0.3892
0.1544
-0.4897
-1.114
-1.983
-1.425
0.1001
0.791
1.172
1.099
0.2842
-0.24
0.1561
0.1604
-0.2184
-0.1605
-0.07935
-0.013985
0.004105
0.0
0.001367
-0.00886
-0.0691
0.02072
0.1277
0.3452
0.3943
-0.2988
-0.5454
0.6753
0.1912
-1.502
-2.645
-1.624
0.2351
1.196
0.879
0.2617
0.0596
0.3584
0.11945
0.1494
-0.2317
-0.2505
-0.08984
0.04196
0.01178
0.0
-0.0002508
-0.0797
-0.0685
0.1304
0.1465
0.3865
0.08
0.4363
0.3206
0.13
0.0655
-1.657
-2.156
-0.213
0.3083
-0.008316
-0.0687
0.538
0.2988
0.1669
0.0756
0.392
-0.251
-0.347
-0.3062
0.1472
0.022
0.0
-0.0938
-0.1631
0.2462
0.2073
0.1656
0.03029
0.04333
0.3423
0.1271
0.2607
0.012314
-1.371
-1.7295
-0.304
0.3088
0.1293
-0.3474
0.1908
0.09607
0.09894
-0.0756
0.2532
-0.8936
0.05334
-0.03223
0.4548
0.0778
0.0
-0.1497
-0.1486
0.2659
0.7905
0.2238
0.32
0.3242
-0.09015
0.2808
0.351
-0.2217
-1.977
-0.582
-0.3623
0.1328
-0.03683
0.2081
0.2705
0.3765
0.272
0.1912
0.2026
-0.837
-0.2064
0.11383
0.3276
0.1357
0.0
-0.0796
-0.478
0.2307
0.4321
0.0761
-0.1008
0.0642
0.6367
0.3167
0.1904
-0.663
-1.766
-0.2097
0.1863
0.1536
-0.2712
-0.07446
0.4082
-0.02257
-0.11395
-0.281
0.12286
-0.4658
0.1816
0.1324
0.5293
0.11884
0.0
-0.1691
-0.376
-0.05728
0.2073
0.4067
0.1247
0.2393
0.533
0.352
0.5356
-1.014
-2.096
0.3044
-0.06445
0.0717
-0.0435
-0.1653
-0.004116
0.0103
0.0824
-0.1702
0.06854
-0.769
-0.369
0.2646
0.6836
0.1032
-3.946e-05
-0.03043
-0.405
0.328
0.727
0.2053
-0.001442
-0.05222
0.2247
0.5254
0.3552
-1.346
-1.253
-0.02116
-0.2634
-0.771
0.08374
0.1178
0.8228
0.0688
0.4165
-0.3
-0.451
-0.2856
-0.3813
0.1549
0.318
0.1787
-8.94e-06
0.01595
-0.325
0.4746
0.657
0.3289
0.2358
0.256
-0.274
0.2864
0.572
-1.482
-2.117
-0.617
-0.292
0.1733
-0.01743
-0.0595
0.4946
0.4155
0.08734
-0.1779
-0.07947
-0.256
-0.2708
0.1456
0.04535
0.1779
8.62e-05
-0.1187
-0.3809
0.1752
0.401
0.3503
0.3025
0.2174
0.3447
0.7866
1.438
-0.5796
-1.693
-0.849
-0.4678
-0.1964
-0.2815
-0.3918
0.1495
0.221
-0.3083
-0.461
0.1935
-0.3926
-0.1343
0.05753
0.299
0.1044
3.6e-06
-0.09174
-0.333
0.03287
0.1674
0.425
0.3408
-0.2491
0.2372
0.6177
1.437
0.4644
-0.1227
-0.855
-0.818
-0.321
-0.0837
0.2338
0.348
-0.28
-0.4663
-0.586
-0.0747
-0.1602
0.11395
0.541
0.843
0.0994
0.0
0.01869
-0.4822
0.2006
0.5864
0.6743
0.3064
-0.02083
-0.1454
0.4104
0.5786
0.1462
-0.273
-0.4414
-0.04388
0.0812
-0.1912
0.11237
-0.2008
-0.02875
-0.5264
-0.505
-0.493
-0.506
-0.4443
0.1854
0.7236
0.1621
0.0
-0.07117
-0.5103
-0.3647
-0.0763
0.2573
0.07324
-0.1091
0.4373
0.621
1.012
0.1761
0.03091
-0.2073
-0.3887
-0.3923
0.1437
-0.0003383
-0.01582
-0.2852
-0.1027
-0.07214
-0.287
-0.5596
-0.3633
-0.01599
0.4644
0.1416
0.0
-0.034
-0.646
-0.1466
-0.06085
0.53
-0.0842
-0.2019
0.1425
0.3892
0.4956
0.1625
-0.1173
-0.4463
0.0521
-0.1803
0.1754
-0.1265
-0.1178
-0.544
-0.6743
-0.2883
-0.192
-0.267
-0.3542
-0.675
0.10077
0.02855
0.0
-0.02983
-0.714
-0.337
0.0165
0.01248
0.0713
0.0725
0.2634
0.6704
0.3599
0.437
0.1764
-0.5986
-0.06165
-0.3525
-0.1954
-0.3716
0.3838
0.1136
0.1335
0.2546
0.0671
0.11304
-0.7964
-0.9644
-0.2039
0.07117
0.0
-0.02736
-0.5386
-0.6133
-0.0328
-0.0949
0.2546
-0.301
0.615
0.2734
0.253
0.462
0.2354
-0.1381
-0.295
-0.4026
-0.333
-0.2284
-0.4197
0.2185
-0.407
0.000831
-0.07043
0.5273
-0.638
-0.835
-0.369
0.03038
0.0
-0.0123
-0.2747
-0.8047
-0.12
0.2761
0.01854
0.1681
0.212
0.3647
0.1396
0.2195
-0.02852
-0.193
-0.1396
0.0712
0.74
-0.394
-0.0623
0.05652
-0.1052
-0.155
0.1324
0.7803
-0.4272
-0.597
-0.1538
-0.00214
0.0
-0.0001151
-0.1056
-0.694
-0.4185
0.399
0.108
0.4067
0.4265
0.4045
-0.07605
0.06396
-0.6973
-0.4097
-0.1277
-0.1777
0.6055
0.225
-0.23
0.3643
0.1081
0.3042
0.2157
0.2152
-0.2905
-0.432
-0.01066
0.0149
0.0
6.53e-05
-0.0879
-0.5913
-0.5723
-0.4165
-0.354
-0.6704
-0.2805
-0.526
-0.189
-0.2815
-0.611
-0.211
0.04532
0.0339
0.4958
0.1895
0.4158
0.4653
0.8047
0.8755
0.3684
-0.05374
-0.3076
-0.2407
-0.02757
0.003845
0.0
0.0
-0.03934
-0.1844
-0.474
-0.5625
-0.831
-1.379
-1.587
-1.485
-0.594
-0.03818
0.02954
-0.222
-0.355
0.4033
0.339
0.7075
1.036
0.677
0.5767
0.2496
0.3499
0.2169
0.1572
-0.03174
-0.0002213
0.0
0.0
0.0
0.00899
-0.01204
-0.1664
-0.3462
-0.5234
-0.6147
-0.748
-0.7573
-0.629
0.005943
0.513
0.2773
0.3376
0.4497
0.7026
0.7637
0.801
0.9272
0.3367
0.307
0.1284
0.08606
0.07574
0.01692
5.54e-06
0.0
0.0
0.0
0.0
-0.01947
-0.0358
-0.1438
-0.1727
-0.1317
-0.1368
-0.1364
-0.1337
-0.0791
0.2091
0.2654
0.5103
0.6255
0.6763
0.5054
0.086
0.0889
0.02905
0.0394
-0.005512
-0.001793
0.01904
0.0202
0.0
0.0
0.0
0.0
0.0
0.0
-0.03317
-0.0541
-0.02298
-0.01878
-0.02162
-0.01393
-0.01237
-0.01277
-0.00324
0.0621
0.02649
0.05026
0.1721
0.0662
0.03287
0.010895
-0.0002983
-2e-06
-3.76e-06
0.0
0.0
0.0
0.0
0.0
0.0
0.0
0.0
0.0
0.0
0.0
0.0
-5.54e-06
-0.01185
0.0003836
0.000451
0.00010324
-8.76e-06
1.13e-06
-0.01947
-0.005016
0.00778
0.0
0.00982
3.09e-05
0.0
2.867e-05
2.78e-05
0.0
0.0
0.0
0.0
0.0
0.0
0.0
0.0
0.0
0.0001773
0.0
3.96e-05
0.005627
-0.007607
0.00589
0.01005
0.02534
-0.002798
-0.0736
-0.02031
0.0274
0.01395
0.004982
0.000245
-0.00899
-0.01309
0.000272
1.365e-05
0.0
0.0
0.0
0.0
0.0
0.0
0.0
5e-07
0.002642
0.01314
-0.003454
-0.00622
0.0326
0.15
0.0682
0.1292
0.10187
0.0818
0.01842
-0.06
-0.01978
0.2039
0.1443
0.1137
0.11615
-0.02037
-0.00731
0.02643
-0.0005817
0.0006323
0.00172
0.0
0.0
0.0
0.0
1.22e-05
0.001295
0.01104
0.028
0.06915
0.2155
0.3857
0.303
0.2993
0.1924
-0.010605
0.05417
0.02043
0.07886
0.4834
0.6943
0.757
0.581
0.5527
0.178
0.06067
0.02469
0.03506
0.00407
0.0007744
0.0
0.0
1e-07
-3.76e-06
0.006824
0.06464
0.2979
0.1835
0.7734
0.79
0.6084
-0.02074
0.0572
0.8345
0.787
0.0987
-0.1328
0.427
0.1434
-0.1008
0.0467
0.483
0.161
0.3438
0.3394
0.405
0.1125
0.03833
0.000258
0.0
-3.7e-06
-0.001023
0.0883
0.167
0.6514
0.4185
0.2864
0.06107
-0.1869
-0.3374
-0.253
0.1475
0.458
-0.139
-0.1788
-0.2422
-0.2825
-0.05856
0.0932
-0.05658
-0.391
-0.01199
0.3306
0.8154
0.5215
0.2101
0.001061
0.0
0.001144
-0.004536
-0.01685
0.292
0.445
0.622
-0.05807
0.02318
-0.1059
-0.0505
0.0875
-0.3962
-0.0782
-0.1339
0.12146
-0.853
-0.4092
-0.2433
-0.259
-0.5645
0.01907
-0.2107
0.1626
1.025
0.777
0.3342
0.01839
0.0
0.001931
-0.04034
-0.04645
0.313
0.334
0.1736
-0.4514
-0.4783
0.0669
-0.619
-0.4143
-0.1182
0.1903
-0.5234
-0.632
-0.3467
-0.1506
-0.5933
-0.341
0.0348
-0.01978
-0.3054
0.4065
1.038
0.8716
0.559
0.09436
0.0
-0.00351
-0.0891
-0.13
0.6685
0.511
0.287
-0.0595
-0.2147
0.3416
-0.42
-0.2021
-0.3818
0.402
-0.3652
-0.4485
-0.318
-0.4648
-0.627
-0.2415
-0.2712
-0.08075
-0.468
-0.3154
0.6294
1.434
0.7427
0.0862
0.0
-0.009995
-0.05627
0.03732
0.8057
0.3376
-0.287
-0.2744
-0.899
-0.1506
-0.734
-0.7524
0.5938
-0.1674
-0.4382
-0.5215
-0.01269
-0.668
-0.6484
-0.5693
0.03702
-0.5166
0.1616
-0.1882
-0.03653
1.761
1.044
0.02391
0.0
-0.03073
-0.12
-0.0665
0.85
0.2622
0.3103
-0.138
-0.3633
0.0407
-0.4158
-0.7695
-0.5137
-0.4817
-0.555
-0.493
-0.1086
-0.29
-0.9907
-0.8164
-0.672
-0.4126
0.2428
-0.272
0.2047
1.407
0.8975
0.00564
0.0
-0.09595
-0.2416
0.0675
0.9067
0.3547
0.6855
0.1578
-0.3828
-0.5757
-0.954
-0.04837
-0.5527
-0.7227
-0.941
-0.07245
-0.1074
-0.6777
0.0697
-0.7793
-0.1453
-0.3728
-0.01898
-0.605
-0.2952
0.887
0.887
-0.00594
-0.02512
-0.0447
-0.2322
0.2766
0.3357
0.002172
0.487
0.6016
0.3767
0.03029
-1.306
-1.175
-0.6826
-0.964
-0.415
-0.3242
-0.1852
-0.262
-1.221
-0.8433
-0.6743
-0.211
-0.05548
-0.1617
0.09375
1.249
0.997
0.0684
-0.0551
-0.0761
-0.1078
0.2446
0.3945
0.741
0.6675
0.662
0.3308
0.4126
-0.0423
-0.4656
-0.7773
-0.1641
-0.001599
-0.0183
0.1569
-0.00929
-0.689
0.0858
-0.4675
-0.5723
-0.4497
-0.344
0.4148
0.779
1.08
0.10986
-0.0001464
-0.00785
-0.05942
0.6167
0.344
0.1232
0.1653
1.226
0.95
2.219
1.429
1.304
1.12
1.559
0.4946
0.05145
0.2954
-0.4526
0.4272
-0.11005
-0.3945
-0.3647
-0.002583
-0.7163
0.01452
0.824
1.482
0.1792
-6.1e-06
0.0455
0.04562
0.9805
0.7007
-0.117
0.265
0.2357
-0.3015
0.9326
0.9307
0.949
0.5093
0.5483
0.5728
0.1812
-0.273
-0.1547
0.454
-0.432
-0.6543
-0.10815
-0.55
-0.673
-0.09607
0.945
1.092
0.0664
0.0
0.0826
-0.05118
0.1968
0.1707
-0.9683
0.615
0.703
0.619
-0.01543
0.7476
0.3254
0.381
0.566
-0.0341
-0.06976
-0.10236
-0.6523
-0.005024
-0.3752
0.2306
-0.266
0.36
-0.5205
-0.5317
0.8525
0.8438
0.04794
0.0
0.03644
-0.1038
0.2185
-0.03622
-1.155
0.405
0.417
-0.0553
0.1442
0.4146
1.241
0.2147
0.4216
0.2462
0.3835
0.4675
-0.1617
0.2883
-0.01656
-0.2673
-0.299
0.1197
-0.7925
-0.026
0.9062
0.8022
0.03802
0.0
-0.000504
-0.012856
0.1329
0.268
-0.3694
0.858
0.2456
0.514
0.11084
0.3647
0.489
0.4788
0.463
0.754
-0.1656
0.172
-0.05795
0.3196
-0.323
-0.515
-0.03102
-0.3782
-0.03363
-0.549
1.097
0.8813
0.05502
0.0
0.00010675
-0.1395
-0.01779
0.3154
0.3208
-0.6494
0.1531
0.4324
-0.02525
0.1232
0.6367
0.1808
0.6836
0.1287
0.1608
-0.1373
0.3484
0.4531
0.03195
-0.1432
0.0063
-0.426
-0.575
0.2396
1.27
0.7456
0.0184
0.0
9.56e-05
-0.05304
0.1765
0.1945
0.4194
0.1545
0.5864
-0.2339
-0.0693
0.3794
0.7017
0.3726
-0.1469
-0.4094
-0.05383
-0.0591
-0.3477
0.753
0.195
0.281
-0.02472
-0.1564
-0.7305
0.467
1.386
0.6484
0.03137
0.0
-0.00011766
9.89e-05
0.05356
0.2698
0.255
0.4521
-0.2426
0.4458
-0.3445
-0.03625
0.2114
-0.492
-0.3904
-0.2253
0.1863
0.08826
0.12164
0.9253
0.1873
0.1925
-0.1968
-0.531
-0.6523
0.4673
0.8403
0.313
0.0238
0.0
3.65e-05
0.004223
0.01566
0.2218
-0.232
-0.75
-0.651
0.00659
0.1337
0.7075
0.5728
-0.05234
-0.7954
-0.591
-0.09045
0.3787
0.4485
0.529
0.1249
-0.2467
-0.307
-0.265
0.2727
0.4927
0.458
0.1006
0.02605
0.0
1.454e-05
0.002666
-0.07214
-0.095
-0.75
-1.207
-1.266
-1.448
-0.9316
-0.09094
-0.10626
-0.2438
-0.9365
-1.144
-0.9644
-0.513
-0.1663
-0.052
-0.002676
-0.1403
-0.4514
-0.03632
0.5234
0.4563
0.3376
0.02087
0.004475
0.0
0.0
-0.0001637
-0.0771
-0.00516
-0.1332
-0.518
-1.026
-1.187
-1.273
-0.6157
-0.347
-0.4373
-0.605
-0.3228
-0.2534
-0.7686
-0.7065
-1.026
-0.839
-0.4172
-0.3735
-0.1852
0.1462
0.1732
0.0737
0.001393
0.0
0.0
0.0
-2.46e-05
-0.000504
-0.03207
-0.0476
-0.1863
-0.271
-0.3733
-0.3955
0.0755
0.0964
-0.011765
-0.1593
-0.166
-0.342
-0.498
-0.407
-0.3997
-0.293
-0.0793
-0.0877
-0.05994
-0.0421
-0.012535
0.012924
-3.46e-06
0.0
0.0
0.0
0.0
-0.0001241
-9.656e-05
-0.001955
-0.02177
-0.0224
-0.02834
-0.05252
0.04102
0.02863
0.000764
-0.07196
-0.03366
0.04398
0.04874
-0.02734
0.0247
0.0321
0.03687
-0.02286
0.01193
0.01645
6.4e-06
-0.0001519
0.0
0.0
0.0
0.0
0.0
0.0
-8.976e-05
0.0007453
0.002022
-0.001363
-0.011505
0.01031
-0.002546
0.02295
0.04105
-0.010994
-0.00784
0.006996
0.01967
-0.01513
-0.00671
0.0001699
0.0001415
-7.75e-06
-1.436e-05
0.0
0.0
0.0
0.0
0.0
0.0
0.0
0.0
0.0
0.0
0.0
0.0
0.0001584
0.001255
-0.0004158
-0.000641
-0.000303
0.0001145
-1.085e-05
0.00351
0.001083
-0.0003781
0.0
0.0023
-0.0
0.0
-4.05e-06
-3.93e-06
0.0
0.0
0.0
0.0
0.0
0.0
0.0
0.0
0.0
-6.44e-06
0.0
-0.0018015
-0.10046
0.00864
0.015465
0.00489
-0.00256
-0.012665
-0.010925
-0.01153
-0.000395
-0.001476
-0.0005627
-9.54e-05
0.006813
0.0196
-0.0008483
-4.685e-05
0.0
0.0
0.0
0.0
0.0
0.0
0.0
2.4e-06
2.5e-06
-0.0003238
-0.0004444
0.01035
-0.0325
0.10236
0.096
0.0001713
-0.03014
-0.004692
0.01945
-0.00818
-0.01309
-0.04547
-0.0903
-0.0567
0.09125
0.0476
-0.05453
-0.105
-0.09863
-0.01355
-0.002045
0.0
0.0
0.0
0.0
6.4e-06
-6.616e-05
0.01633
-0.01675
-0.2517
-0.4563
-0.445
-0.3862
-0.335
-0.2585
-0.03029
0.2246
0.1945
0.00432
-0.2236
-0.6006
-0.7866
-0.5737
-0.3916
-0.2468
-0.3733
-0.2438
0.0405
0.1277
0.0001311
0.0
0.0
5.4e-05
0.001019
-0.0009775
-0.07526
-0.1785
-0.688
-1.326
-1.396
-1.076
-0.587
-0.0913
0.2499
0.729
0.4995
0.268
0.1178
-0.4976
-0.73
-0.54
-0.2279
0.1833
0.05057
-0.2566
-0.2351
0.0694
0.06192
0.0001761
0.0
0.0001585
0.0003304
-0.03186
-0.2188
-0.3003
-0.536
-1.096
-0.893
-0.896
-0.4458
-0.263
0.228
1.263
1.351
0.5234
0.3452
0.06082
-0.4597
-0.03998
0.333
0.3008
-0.01476
-0.1938
-0.2522
0.02112
0.09186
0.000471
0.0
4.64e-05
0.00881
0.04578
-0.0772
-0.06525
-0.576
-0.6777
-0.819
-0.684
-0.19
0.227
0.715
1.279
1.333
0.04855
0.1539
0.5957
0.5083
0.3892
0.3618
0.04434
-0.7915
-0.3228
-0.112
0.00998
0.10944
0.003174
0.0
0.001143
0.05856
0.06027
0.1936
0.2493
-0.1609
-0.0907
-0.726
-0.7354
-0.1804
0.2241
0.4941
0.8013
1.049
0.2377
0.4583
0.3926
-0.006165
0.1444
-0.4788
-0.07385
-0.9795
-0.794
-0.1465
0.1768
0.1827
0.01264
0.0
0.02005
0.07794
0.1957
-0.05923
0.196
0.0462
-0.3357
-0.1847
-0.1252
-0.1945
0.527
1.026
0.2595
0.744
0.7417
-0.002867
-0.1814
-0.2778
-0.186
0.1825
-0.3088
0.12225
-0.06216
0.1548
0.3599
0.3723
0.004036
0.0
0.02098
0.1437
0.3057
-0.256
0.358
0.07935
-0.04712
-0.1396
-0.1671
0.4238
0.4634
0.4216
0.1681
0.6567
0.11816
-0.3032
0.1611
0.1826
-0.366
0.11456
0.08905
0.007137
-0.2357
0.3857
0.604
0.7373
-0.0101
0.0
0.01434
0.272
0.669
-0.2856
0.499
-0.02808
-0.1737
-0.09546
0.532
-0.008385
0.4827
0.809
0.5225
0.7617
0.5073
0.08185
0.626
-0.10315
-0.3015
0.0655
-0.4487
-0.2915
0.5557
0.1378
0.1588
0.78
0.01447
0.0
0.0265
0.339
0.4084
-0.06903
-0.3975
-0.2025
0.0634
0.227
0.2834
0.5654
0.534
0.624
0.3152
0.001027
0.11646
0.10205
0.7373
-0.6465
0.1182
0.4507
-0.0922
0.3782
-0.04224
-0.3782
0.422
0.7573
0.02585
0.000143
0.010124
0.384
0.0709
-0.519
-0.12195
0.03668
-0.2825
-0.6826
0.3147
0.781
0.134
0.1177
0.492
0.167
0.1277
-0.11334
-0.4429
-0.4136
-0.2039
0.504
-0.065
-0.06104
-0.452
0.000584
0.7847
0.838
0.02457
0.000255
0.011314
0.388
0.1763
-0.632
0.1703
-0.01665
0.4646
-0.368
0.0853
0.416
0.404
0.2612
0.03845
-0.5156
-0.329
-0.9385
-0.7554
-0.3357
0.27
0.5073
-0.11395
0.3586
-0.3362
-0.1354
0.1371
0.777
0.02028
-6.455e-05
0.01045
0.4521
0.593
-0.2013
-0.9004
0.4758
0.604
0.055
-0.004654
-0.05392
-0.5684
-0.8613
-0.7666
-0.6455
-1.42
-0.8774
-0.8765
0.506
0.1437
-0.1635
-0.12317
-0.1606
0.2969
-0.2825
0.0938
0.7974
0.04977
-2.7e-06
0.003963
0.2537
0.6294
-0.327
-0.9126
-0.3447
-0.2274
-0.2058
-0.02348
-0.6416
-0.701
-0.3416
-0.338
0.01964
-0.03745
0.3462
0.7
1.052
-0.09515
-0.0669
0.02625
0.10803
-0.4888
-0.01996
0.2566
0.682
0.03836
0.0
-0.01073
0.171
0.7915
-0.01997
-0.2659
-0.1957
0.3699
-0.0741
-0.1852
-0.4937
-0.10095
-0.1761
-0.3901
-0.429
-0.3997
0.283
0.3572
0.5693
0.1805
0.2224
-0.2856
0.2144
-0.1079
0.02179
0.8066
0.3137
0.003805
0.0
0.009964
0.378
0.5996
0.288
-0.2917
0.00087
0.00506
0.1621
-0.3774
-0.6494
-0.4219
0.1134
0.2722
-0.06384
0.605
0.4182
0.0825
0.03043
0.165
0.0607
-0.2683
-0.2324
-0.3936
0.7773
0.5747
0.3076
0.01123
0.0
0.007458
0.376
0.7246
-0.00879
0.0979
-0.0283
0.0755
-0.516
-0.1566
-0.1836
-0.1863
-0.1097
-0.093
-0.1277
0.433
0.2654
0.5825
0.0925
0.2646
0.312
-0.32
-0.3606
-0.8765
0.2142
0.4744
0.4214
0.006187
0.0
0.007675
0.3135
0.6895
0.2546
-0.2389
0.309
-0.2448
-0.61
0.1982
-0.849
-0.3506
-0.3184
0.0754
-0.1943
0.263
0.2864
0.1783
-0.0907
0.3538
-0.0945
-0.2673
-0.2122
-0.1759
0.517
0.588
0.3425
-0.0337
0.0
0.00993
0.3193
0.6533
0.4963
0.3167
-0.2854
-0.3804
0.06714
-0.0575
-0.2717
-0.399
-0.3032
-0.239
0.5845
0.63
1.157
0.7256
0.2007
0.0947
-0.1636
0.268
-0.1354
-0.1017
0.625
0.8926
0.314
0.0206
0.0
0.00913
0.2294
0.627
0.5376
0.07074
-0.1498
-0.1954
-0.02715
0.10095
-0.5806
-0.2196
-0.0418
0.32
-0.0584
0.362
-0.02663
0.1627
0.394
0.2527
-0.3
-0.0161
-0.1471
0.2451
0.572
0.847
0.2727
0.01965
0.0
0.002922
0.1215
0.2496
0.4592
0.523
0.776
0.0785
-0.2305
-0.0738
0.03488
-0.1523
0.0928
0.7305
0.862
0.5063
0.756
0.1726
0.2656
-0.1947
-0.519
-0.347
-0.37
0.0824
0.2222
0.3726
0.0823
0.013596
0.0
0.001869
0.04733
0.1155
0.464
0.542
0.372
0.527
0.923
1.148
0.5396
-0.1923
-0.2426
0.3801
1.063
1.106
0.4026
-0.03854
-0.206
-0.474
-0.2615
-0.0315
0.02704
0.03677
0.1483
0.05222
0.014336
-0.0001843
0.0
0.0
0.01471
0.06152
0.1862
0.0591
0.2786
0.6855
0.654
1.307
0.736
-0.4966
-0.414
0.2927
0.654
0.7227
0.4607
0.2067
0.25
0.2062
-0.001654
-0.01422
-0.05365
0.003555
0.1101
0.02353
0.0001409
0.0
0.0
0.0
0.00087
0.001114
0.00554
-0.0438
0.1439
0.338
0.3833
1.04
0.6626
-0.191
-0.1721
-0.0973
0.0316
0.0754
0.0436
0.1746
0.0443
-0.04355
-0.03928
-0.062
-0.03644
-0.014626
0.03192
0.0217
7e-06
0.0
0.0
0.0
0.0
0.00554
0.001686
-0.0709
-0.0418
-0.0489
-0.03503
0.1317
0.083
0.04202
-0.02005
-0.0902
-0.03146
-0.01813
-0.08014
-0.0679
-0.00789
-0.01078
-0.00414
-0.006096
-0.002497
-0.001879
0.00769
0.00817
0.0
0.0
0.0
0.0
0.0
0.0
0.0003395
0.0002191
0.001086
0.01935
-0.00598
0.05185
-0.02287
-0.01278
-0.01855
-0.02007
-0.00406
-0.004005
-0.002998
-0.006657
-0.002892
-0.002687
-1.603e-05
4.58e-05
8.46e-05
0.0
0.0
0.0
0.0
0.0
0.0
0.0
0.0
0.0
0.0
0.0
0.0
-3.93e-06
-0.003986
-0.0008755
-0.001048
-9.36e-05
-1.57e-05
0.000132
0.01013
0.00331
-3.976e-05
0.0
-0.001349
3.11e-05
0.0
6.74e-05
6.53e-05
0.0
0.0
0.0
0.0
0.0
0.0
0.0
0.0
0.0
-6.2e-06
0.0
-0.001056
-0.0621
0.005413
0.00767
0.004704
0.001479
0.01706
0.03665
0.01431
-0.00814
0.001741
-0.0003872
5.65e-05
3.093e-05
-0.000444
-0.000332
2.86e-06
0.0
0.0
0.0
0.0
0.0
0.0
0.0
-2.9e-06
0.00404
0.010605
0.00088
-0.001386
0.011406
-0.001353
-0.02345
0.007317
0.007805
0.03513
0.03778
0.03616
0.05554
-0.03555
0.0009675
0.0323
0.02129
-0.05893
-0.1205
-0.1228
-0.01539
0.003319
0.001641
0.0
0.0
0.0
0.0
-0.001669
-0.02028
-0.01405
0.02072
0.03065
0.0888
0.1021
0.1946
0.1818
0.1864
0.1807
0.1251
0.2408
0.3499
0.334
0.1837
0.201
-0.03043
-0.2229
-0.0755
-0.3489
-0.1498
-0.06793
0.00495
0.001165
0.0
0.0
-2.4e-07
-0.00062
0.004433
0.01746
-0.02219
0.08954
0.11804
0.3672
0.4905
0.6006
0.761
0.7476
0.529
0.5005
0.2886
0.2257
0.3213
0.3855
0.251
-0.3555
-0.2104
-0.2067
-0.00552
-0.11414
-0.02069
0.00471
-0.0002079
0.0
-0.0001334
-0.000956
-0.05377
-0.235
-0.2693
-0.12067
0.0778
0.4675
0.589
0.615
0.929
0.7485
0.2935
0.1171
-0.6934
-0.3276
0.1238
-0.2361
-0.0883
-0.4824
-0.5303
-0.578
-0.2408
-0.05563
-0.0602
0.0514
-0.00061
0.0
-0.01917
-0.0373
-0.06775
-0.2761
0.01183
-0.2969
-0.1895
0.389
0.4312
0.8374
0.8047
-0.276
-0.3303
-0.1266
-0.7417
-0.778
0.4065
0.2443
0.1431
-0.377
0.274
-0.601
-0.7153
-0.09924
-0.003742
0.03287
-0.001265
0.0
-0.0394
-0.1388
-0.2788
-0.3826
-0.0718
-0.463
-0.0971
-0.03915
0.09564
0.9243
0.8
0.3257
0.0802
-0.1608
-0.566
-0.7793
-0.2524
0.1414
-0.1757
-0.611
0.2246
0.10876
-0.454
-0.2646
0.1189
-0.03024
-0.004433
0.0
-0.07733
-0.248
-0.5664
-0.771
-0.5557
-0.2467
0.554
-0.2094
0.2708
0.632
0.7793
0.09625
0.323
-0.2795
-0.6353
-0.471
-0.4402
-0.342
-0.1984
-0.1923
0.1776
0.2798
-0.09814
-0.01637
0.0658
-0.00473
-0.00394
0.0
-0.04935
-0.379
-1.07
-0.6753
-0.2546
-0.279
-0.3752
0.2397
1.056
1.159
0.736
0.1357
0.7197
-0.4832
-0.3613
-0.4792
-0.214
-0.284
0.0996
-0.609
-0.3533
-0.1011
-0.903
0.1526
0.351
0.2347
0.000902
0.0
-0.10406
-0.609
-1.273
-0.4304
-0.4148
-0.3767
-0.0803
0.04337
0.5083
0.8916
0.4072
0.5044
0.5386
-0.1287
-0.0707
-0.2412
-0.444
-0.5215
-0.6904
-0.4785
-0.07
-0.2454
-0.3223
0.0665
0.403
0.2137
0.001279
0.0
-0.0767
-0.8564
-1.75
0.1313
0.4636
-0.0222
0.1333
0.04913
1.001
0.7827
0.2377
0.973
0.8604
-0.808
-0.3894
-0.2201
-0.3025
-0.4207
-1.613
-0.12384
-0.1445
0.0817
0.015144
0.2686
0.0973
0.2522
0.001362
-0.001005
-0.06683
-1.257
-2.008
-0.1941
-0.145
-0.3489
-0.54
-0.2974
0.3867
0.2002
0.734
0.1824
0.04276
-0.0975
0.6313
0.4028
0.139
-0.8965
-1.458
-0.272
-0.444
0.00925
-0.1425
0.08905
0.2255
0.4233
0.004025
-0.001968
-0.05704
-1.384
-2.191
-0.5615
0.019
-0.8477
-0.696
0.605
0.5337
0.5967
0.4673
0.829
0.65
0.9004
0.1693
0.59
0.1942
0.1827
0.1598
-0.764
-0.511
0.05472
-0.05167
-0.1317
0.6353
0.4482
-0.00502
0.0002573
0.003994
-1.113
-1.464
0.01596
0.4531
-0.542
-0.6304
-1.027
-0.9434
0.1482
0.07837
0.5913
0.5
0.497
-0.04263
0.4692
0.3604
0.7754
-0.4304
-0.2009
-0.6743
0.1306
-0.1294
-0.3928
0.322
0.2522
-0.004803
1.07e-05
0.00462
-0.6143
-1.125
-0.1252
-0.3384
-0.6333
-0.3247
-0.815
-1.04
-0.1919
0.539
0.8184
0.836
0.304
0.0877
0.832
0.993
-0.02786
-0.05774
0.00784
-0.3018
-0.8745
-0.05197
0.0809
0.1498
0.3376
0.015526
0.0
-0.1704
-0.4753
-1.162
0.3684
-0.3213
-0.1332
0.15
-0.4856
-0.372
0.1501
0.8486
0.03357
0.149
0.08295
0.387
0.2832
0.10834
-0.9385
-0.4731
-0.05246
0.1255
-0.05005
-0.1084
-0.262
0.0804
0.2062
0.00672
0.0
-0.0652
-0.5923
-0.757
0.1757
0.2064
-0.1081
-0.327
-0.5073
-0.02466
0.2434
0.3416
-0.1722
0.00926
0.4707
0.2399
0.10583
-0.5
-0.0797
-0.1855
0.3315
0.307
0.2957
0.1287
-0.513
-0.1854
0.1538
-0.01168
0.0
-0.01987
-0.3293
-0.4836
0.2357
0.367
0.0595
-0.08545
-0.05762
0.3103
-0.5874
0.1998
0.1422
0.4475
0.1683
-0.0514
-0.2307
0.4075
-0.6504
-0.6836
0.1938
-0.552
0.5913
-0.2505
0.09235
-0.2339
-0.02805
-0.0364
0.0
-0.05597
-0.1481
-0.2219
0.048
0.03082
0.1609
0.323
0.998
-0.1442
-0.7764
-0.3372
-0.0885
0.1675
-0.1794
-0.3096
0.00419
0.1255
-0.5044
-0.4294
0.2131
0.02158
0.037
-0.12305
-0.1799
-0.4148
-0.11237
-0.001455
0.0
-0.0687
-0.2832
-0.5254
-0.51
0.9194
0.2607
0.4543
0.4885
0.003511
-0.1152
-1.021
-0.0841
0.03696
-0.03622
-0.43
-0.2686
-0.1866
-0.2314
-0.7275
0.2144
0.2637
-0.0386
0.6
0.1163
-0.5317
-0.1393
-0.001684
0.0
-0.02472
-0.1741
-0.3481
0.2778
0.4521
-0.02527
0.6626
0.0783
0.6675
0.1498
-1.327
-0.4375
-0.5747
-0.4084
-0.3733
-0.2332
0.04623
-0.283
-0.2201
-0.1475
0.6274
0.7603
0.3271
0.03033
-0.2695
-0.06934
-0.001791
0.0
-0.08295
-0.165
-0.352
0.2798
0.3591
0.668
0.914
0.1688
0.8267
0.854
-1.129
-1.699
-0.6914
0.0689
-0.2251
-0.1059
-0.4758
-0.1635
0.1216
0.127
0.4963
0.1724
-0.11847
-0.1892
-0.11316
-0.0186
6.56e-06
0.0
-0.1091
-0.1887
-0.214
0.2708
1.022
1.291
0.7554
0.362
0.668
0.0875
-1.392
-2.16
-1.51
-0.469
-0.4067
-0.1658
0.2896
0.1305
-0.2095
-0.08826
-0.07416
-0.002546
0.0761
0.00899
-0.078
0.002106
-2.2e-06
0.0
0.0
-0.07465
-0.1854
0.2018
0.652
1.952
1.484
1.6
1.714
0.8486
-0.7397
-1.482
-1.104
-0.2654
-0.2155
0.0764
0.2261
0.03903
-0.0428
-0.12067
-0.2114
-0.05594
0.02925
-0.02678
-0.01109
-6.35e-05
0.0
0.0
0.0
-0.02675
0.0299
0.05875
0.2976
1.091
1.027
1.518
1.738
1.471
0.4385
-0.16
-0.1226
-0.1666
-0.2018
-0.2305
-0.2167
-0.2372
-0.02066
-0.0786
-0.1072
-0.00564
0.001169
-0.03001
-0.01768
3.6e-06
0.0
0.0
0.0
0.0
-0.002138
0.000635
0.1147
0.3748
0.2295
0.2228
0.3606
0.3577
0.2993
0.232
0.0291
-0.0507
0.00787
0.053
0.01869
0.02895
0.007282
0.01204
-0.00562
0.007996
0.01058
-0.0084
-0.00893
0.0
0.0
0.0
0.0
0.0
0.0
-0.0007005
0.0202
0.09357
0.05646
0.0122
0.014404
0.009865
0.00334
-0.01138
-0.09143
-0.002018
0.01599
0.06366
0.00993
0.01273
0.00473
0.0001395
-2.42e-05
-4.464e-05
0.0
0.0
0.0
0.0
0.0
0.0
0.0
0.0
0.0
0.0
0.0
0.0
1.156e-05
0.00223
0.0001627
0.0002168
0.002462
0.0009003
3.546e-05
-0.007393
-0.002285
0.000772
0.0
-0.004414
3.64e-06
0.0
7.03e-06
6.8e-06
0.0
0.0
0.0
0.0
0.0
0.0
0.0
0.0
0.0
-9.54e-06
0.0
-0.000385
-0.03099
-0.005173
0.01236
0.0145
0.01608
0.004772
0.003122
-0.00621
-0.0113
0.02017
-0.0003324
1.025e-05
0.004543
0.00952
1.5e-06
-2.7e-06
0.0
0.0
0.0
0.0
0.0
0.0
0.0
-1.55e-06
2.12e-05
3.65e-05
0.0001668
0.02051
0.002958
0.002363
0.01106
0.02197
0.01033
0.0368
0.0622
0.002409
-0.00892
-0.03146
-0.1008
-0.0728
0.0626
0.02512
-0.01666
-0.02005
0.004387
0.002241
-0.0001445
0.0
0.0
0.0
0.0
0.00221
0.01561
0.001185
0.00637
0.0418
0.04288
0.0661
0.1356
0.1793
0.135
0.0917
0.109
0.06433
0.07117
0.006374
-0.10046
-0.03378
0.0858
0.02821
-0.05566
-0.1255
-0.065
-0.02072
-0.003447
0.000972
0.0
0.0
2.4e-07
0.00017
0.01185
-0.01971
0.02293
0.10394
0.1677
0.2615
0.281
0.2654
0.1559
0.3162
0.2368
0.2407
0.334
0.0596
-0.3572
-0.11365
0.0366
-0.10583
-0.2502
-0.338
-0.1854
-0.009895
0.04105
0.02045
-0.0002482
0.0
-5.3e-06
-1.603e-05
-0.001763
-0.02003
0.0555
0.1736
0.2361
0.2964
0.1622
-0.2437
-0.2034
0.01921
0.1305
0.2908
0.257
-0.01129
-0.0892
-0.0701
-0.05597
0.1026
0.003103
-0.0229
-0.07947
0.06525
0.1395
-0.00841
4.12e-05
0.0
-0.003643
-0.001888
-0.01553
0.01327
0.0669
0.0944
0.1716
0.27
0.2812
-0.0673
-0.03061
0.1207
0.5835
0.5254
0.1051
-0.3477
-0.5273
-0.05557
-0.01499
0.1926
-0.1736
0.1534
0.01146
0.319
0.2588
-0.002993
-0.0002322
0.0
-0.006973
0.02109
0.03065
0.06366
0.1255
0.1714
0.2957
0.2732
0.1777
-0.06354
0.08936
0.5723
0.8276
0.526
0.2413
0.2063
-0.06586
-0.512
0.03084
0.05905
-0.1646
0.1388
0.0363
0.255
0.2983
-0.0238
-0.002687
0.0
-0.03326
-0.002281
-0.07465
-0.0205
-0.03177
0.1729
0.1328
0.1263
-0.063
-0.1804
0.0744
0.2693
0.619
0.3762
0.0794
0.513
0.04214
-0.5293
-0.02551
-0.10956
-0.0772
0.1409
-0.0351
0.1818
0.2827
-0.03064
0.00861
0.0
-0.00833
-0.1029
-0.1978
-0.10425
-0.03717
0.12396
-0.04297
0.04343
-0.2346
-0.1344
-0.2417
0.06064
0.1733
0.00593
-0.0823
0.3376
0.4194
-0.05484
0.08936
-0.1454
-0.0398
-0.2319
-0.1193
0.141
-0.04288
-0.1116
0.009514
0.0
-0.00873
-0.1469
-0.2998
-0.3145
-0.1575
0.161
-0.046
-0.0432
0.06204
0.128
0.05692
0.2793
-0.1011
0.10364
-0.0587
0.15
0.158
0.1768
-0.2454
0.00905
0.12463
-0.1306
-0.1538
0.2925
-0.1359
-0.1963
-0.00573
0.0
-0.014275
-0.0844
-0.1938
-0.276
-0.00893
0.2029
0.05713
-0.04788
-0.1106
-0.2998
-0.1348
0.361
-0.1805
0.06494
-0.4653
-0.346
0.0251
0.3406
0.2152
-0.002645
0.0246
0.0701
0.1345
0.1396
-0.0493
-0.02576
0.001425
0.01214
0.1484
0.0778
0.10583
-0.03525
0.2418
-0.2844
-0.03647
0.0882
-0.1726
-0.01201
0.1573
0.421
-0.05127
0.01291
-0.2344
-0.2712
0.0804
0.4666
0.08746
-0.2316
0.015594
-0.1671
0.2032
0.0853
-0.1526
0.0868
-0.00843
0.02654
0.1129
0.2673
0.2203
0.10706
0.2612
-0.3022
-0.01662
0.05606
0.03223
-0.2559
0.04504
0.5283
-0.005913
-0.0708
0.3506
0.255
0.3828
0.334
0.1532
0.301
-0.1537
0.06113
0.2166
0.1459
-0.06366
0.2341
0.03275
-5.22e-05
0.05658
0.1793
0.4377
-0.1143
0.3313
-0.3535
-0.1752
0.007786
0.03815
-0.411
-0.05496
0.1818
0.007233
0.1345
0.5103
0.326
-0.06335
-0.1278
0.291
0.4546
0.2349
0.09796
0.1748
0.0441
-0.0923
0.2502
0.02411
-2.15e-06
0.05817
0.2905
0.4475
-0.1021
0.3418
-0.2239
-0.2537
-0.125
-0.02914
0.0926
0.2484
-0.2118
0.2615
0.2162
-0.0396
-0.1873
-0.2001
0.05063
0.4238
0.5005
0.2961
-0.0821
0.1366
-0.12006
-0.177
0.287
0.05087
0.0
-0.02019
0.1838
0.4534
0.05807
0.147
0.1981
-0.03964
-0.1609
0.1758
0.0664
0.2083
-0.1158
0.1726
0.0392
-0.05304
0.1177
0.06274
-0.2856
-0.0836
0.6133
0.05225
0.2006
0.4797
-0.01338
-0.2898
0.2847
0.05685
0.0
-0.00795
0.111
0.3906
0.2522
0.3557
-0.135
-0.1021
0.1654
-0.07764
0.25
0.162
-0.3005
0.3225
-0.02443
-0.1897
0.00827
0.01741
-0.11255
-0.04248
0.414
0.1284
0.2874
0.5405
-0.0806
-0.3513
0.1493
0.0738
0.0
-0.002672
0.182
0.4033
0.3296
0.1633
-0.1783
0.02554
0.3533
-0.1411
0.2844
0.2493
-0.3662
-0.1704
0.02208
-0.004745
-0.01168
0.05942
-0.3496
-0.1793
0.1897
0.08264
0.528
0.5713
-0.1007
-0.3818
0.1262
0.04108
0.0
-0.01478
0.1315
0.3816
0.285
0.135
-0.1312
0.04346
0.2896
-0.12134
0.06573
0.581
0.4614
-0.1068
0.01137
-0.2035
0.0829
-0.03763
-0.1642
0.2483
0.2944
0.249
0.3086
0.3125
-0.2026
-0.1495
0.074
0.04602
0.0
-0.00789
0.0696
0.299
0.1877
0.01646
0.0984
0.2563
0.1559
-0.2347
-0.1616
0.508
0.2637
0.0726
-0.10333
-0.1306
0.05386
-0.2213
-0.072
-0.02823
0.0481
-0.0593
0.1913
0.11035
-0.12274
-0.0737
-0.01433
0.05408
0.0
-0.001524
0.03326
0.2041
0.2676
0.3723
0.295
0.08356
0.0556
0.007168
-0.1327
0.4604
0.3047
0.3608
0.02437
-0.1931
0.11554
-0.06067
-0.1261
-0.07983
0.08563
0.0957
0.1233
-0.001149
-0.0858
-0.03934
0.01865
0.03592
0.0
-0.004807
0.01375
0.0799
0.3293
0.1422
0.4668
0.1804
-0.2375
-0.1176
-0.3196
-0.02571
0.152
0.09454
-0.1
-0.05542
-4.73e-05
0.1371
-0.1442
-0.3591
-0.04977
-0.02731
-0.04758
-0.053
-0.10175
-0.0199
0.0397
0.00263
0.0
-0.004726
0.002104
0.01897
0.1542
0.1915
0.4375
0.05823
-0.2683
-0.0009303
0.1092
-0.2189
0.11554
0.235
0.1315
0.02983
-0.0817
0.02417
0.01155
-0.05844
0.2385
0.1309
-0.06836
-0.02863
-0.001026
-0.01628
0.0006156
-0.001997
0.0
0.0
-0.0866
-0.07935
-0.06586
0.1508
0.2289
0.08386
0.11835
0.0687
0.07324
0.0931
0.03384
-0.02951
-0.062
-0.1815
0.0366
0.02727
0.097
0.1985
0.17
0.1729
0.04074
-0.03748
-0.05634
-0.02565
-0.0003276
0.0
0.0
0.0
-0.05862
-0.0544
-0.06696
-0.0225
-0.09546
0.04758
0.08075
0.0341
-0.11957
-0.09406
-0.2058
-0.1188
-0.1068
-0.1588
-0.1272
0.0848
0.4045
0.314
0.08734
0.04358
0.02393
0.01738
0.0001987
0.000271
5.2e-06
0.0
0.0
0.0
0.0
-0.000674
-0.000973
0.00719
-0.02652
0.01611
-0.1304
0.0349
-0.01018
-0.01791
-0.1571
-0.003
0.0284
0.0528
0.0535
0.02338
0.0854
0.0315
0.02924
0.009155
-0.0003884
0.001767
0.0003712
0.0003262
0.0
0.0
0.0
0.0
0.0
0.0
0.001284
0.0005603
-0.00791
-0.02574
-0.0348
-0.02098
-0.001297
-0.008995
0.009155
0.03146
-0.00894
-0.0599
0.004284
-0.013115
0.01149
0.0001374
1.57e-05
2.4e-07
4e-07
0.0
0.0
0.0
0.0
0.0
0.0
0.0
0.0
0.0
0.0
0.0
0.0
-4.5e-06
-1.997e-05
0.000721
0.000843
0.0002241
4e-07
-4.834e-05
3.04e-06
2.15e-06
6.56e-06
0.0
0.001347
-1.204e-05
0.0
-0.0002737
-0.0002651
0.0
0.0
0.0
0.0
0.0
0.0
0.0
0.0
0.0
4e-07
0.0
3.84e-05
0.004726
0.00883
0.01091
0.001439
0.01933
0.01134
0.001267
3.22e-05
-9.4e-06
-0.000154
-0.0007024
-7.945e-05
0.00988
-0.0001297
-5.233e-05
-7.993e-05
0.0
0.0
0.0
0.0
0.0
0.0
0.0
0.0
-0.0003595
-0.001214
-0.0002121
0.002197
0.01794
0.01749
0.01475
0.0213
0.0368
0.03488
0.02834
0.002163
-0.01654
-0.01298
0.002474
0.001423
0.01377
0.03284
0.05634
0.054
0.0001274
7.7e-06
1.3e-06
0.0
0.0
0.0
0.0
0.0
-8.53e-05
-0.000281
-0.026
-0.07526
0.006275
0.011826
0.02985
0.0424
0.0697
0.08185
0.02495
-0.0129
0.00403
0.011795
-0.0003223
-0.004208
0.0257
0.08435
0.06323
0.07184
0.1552
0.08966
0.003866
-0.003487
0.0
0.0
-3e-07
-9.06e-06
8.97e-05
-0.00011486
-0.00619
-0.0422
0.03616
0.07367
0.1832
0.2664
0.2358
0.2947
0.2013
0.0733
0.02768
0.02106
0.028
0.06525
0.177
0.1484
0.08307
0.115
0.1807
0.1049
0.0756
-0.0668
7.75e-06
0.0
-9e-07
-1.6e-06
0.0127
0.11285
0.1559
0.1803
0.1755
0.1804
0.3145
0.4014
0.378
0.402
0.257
0.2004
0.2074
0.111
0.01235
0.2437
0.6553
0.3308
-0.3772
-0.7305
-0.4683
-0.1238
0.192
-0.00534
0.0001501
0.0
-7.1e-06
-2.98e-05
0.00403
0.0322
0.1664
0.3752
0.4956
0.3506
0.432
0.6973
0.6914
0.4578
0.304
0.2206
0.3286
0.3135
0.292
0.651
0.67
0.003681
-0.0798
-0.3735
-0.491
-0.3381
0.3237
0.08075
0.000887
0.0
0.0001256
0.002499
0.04633
0.05234
0.2091
0.7056
0.769
0.6006
0.6235
0.6997
0.7686
0.5723
0.222
0.2817
0.6133
0.63
0.6094
0.4749
0.1304
0.1464
0.5186
-0.08496
-0.2203
-0.0994
0.4053
0.1528
0.001549
0.0
0.006874
0.03348
0.161
0.07166
0.5444
1.075
1.176
0.922
0.935
0.5894
0.6094
0.3452
-0.1143
0.279
0.5786
0.6704
0.2262
0.1333
0.1833
-0.1061
0.625
0.239
-0.07007
0.3633
0.3665
0.1538
0.0436
0.0
0.00527
0.0662
0.3875
0.25
0.7017
1.267
1.254
0.975
1.003
0.297
0.2517
-0.04742
-0.2102
-0.0954
0.2253
0.1361
0.587
0.3247
0.0236
-0.1187
0.5684
-0.0755
0.0731
0.419
0.5347
0.04535
0.066
0.0
0.002132
0.083
0.5747
0.0837
0.3894
0.571
0.825
0.3704
0.2023
-0.238
-0.2864
0.07916
0.1501
0.0745
0.1223
0.4224
-0.1683
0.3875
0.2452
0.3694
-0.0656
0.532
-0.0449
0.4192
0.9854
0.2634
0.03992
0.0
-0.0004854
0.1168
0.818
0.659
0.355
0.1707
0.2164
0.1956
-0.3345
-0.541
-0.0436
0.507
0.6753
0.1498
0.006653
0.1704
0.6084
0.0768
0.3916
0.3918
-0.3542
1.047
0.11145
1.102
0.7393
0.2493
0.01642
6.7e-06
-0.0003324
0.0707
0.694
0.4932
0.5454
0.7065
-0.0488
-0.01743
0.3645
-0.0957
-0.1509
-0.86
-0.3384
-0.417
-0.6904
0.292
-0.2262
0.2472
0.009094
0.0838
0.202
0.8955
-0.1807
0.479
0.698
0.02602
0.015
0.00010353
-0.0001203
0.2009
0.701
0.3054
0.4834
0.769
0.2722
-0.0648
0.2053
-0.04312
-0.6855
-0.697
-0.1609
-0.2952
-0.5464
-0.504
-0.8325
-0.1594
0.008545
0.2311
0.01394
0.836
0.512
0.558
0.8296
0.2385
0.01295
9.89e-05
-0.1595
-0.1589
0.6343
0.02272
-0.00441
0.2108
0.1271
0.379
-0.1729
-0.5024
-1.007
-1.331
-0.927
-0.6533
-0.65
-0.6426
-0.551
-0.313
0.381
-0.3335
-0.1754
-0.0452
0.7993
0.7646
0.4539
0.1493
0.0188
4.1e-06
-0.301
-0.532
0.1022
-0.1178
-0.2126
1.058
0.56
0.347
-0.1592
-1.155
-1.217
-0.9487
-0.6636
-0.2659
-0.3909
-0.1914
0.357
0.9077
0.2467
-0.0242
0.000855
0.1335
-0.23
1.12
0.737
0.01206
0.005253
0.0
0.01604
-0.2192
0.1877
0.1941
0.2864
0.4985
0.6284
0.6797
-0.2065
-0.1501
-0.8345
-0.461
-0.2123
-0.3323
-0.9985
-0.5425
0.801
0.835
0.1643
-0.5425
0.2966
-0.05566
-0.3823
0.866
0.4358
-0.0401
0.02019
0.0
0.01178
0.1571
-0.03265
0.452
0.7344
0.3333
0.3125
-0.3552
0.7876
0.4966
-0.11707
-0.578
-0.6226
-0.00571
0.3347
1.078
1.164
0.216
0.1956
-0.309
0.0708
-0.714
-0.776
-0.04642
0.03604
0.006474
0.03069
0.0
0.0003963
0.178
0.4004
0.427
0.3767
0.3298
0.4924
0.2013
0.1412
0.3083
0.1307
-0.0969
0.3682
0.7476
0.872
0.945
0.7817
0.2551
0.4497
0.05048
-0.26
-0.6006
0.0772
0.01863
-0.05243
0.01625
0.02878
0.0
-6.92e-05
0.0004416
0.08057
-0.06177
0.0618
0.566
-0.01906
0.1575
0.5894
0.5693
0.5547
0.553
0.9414
0.859
0.7656
0.4236
0.0785
-0.2903
-0.02715
0.4963
0.379
0.2119
0.707
0.03934
-0.05237
-0.0326
0.003204
0.0
-0.0007944
-0.004616
-0.1525
0.0944
0.107
0.2451
0.07983
0.5303
0.3691
0.5728
0.4592
0.8594
0.7915
0.606
0.609
0.256
0.1488
0.02847
0.318
0.784
0.6963
0.626
0.756
0.073
-0.03117
-0.01295
0.0004709
0.0
-0.001615
-0.04977
-0.07947
-0.02022
-0.3293
0.2004
0.2336
0.1198
0.0443
0.3672
0.554
0.3047
0.3247
0.3508
0.2986
0.1405
0.1976
0.4045
0.564
0.7617
0.6426
0.538
0.5806
0.0909
-0.005875
0.004158
0.0003695
0.0
-0.0001332
-0.04306
0.128
-0.1478
-0.4521
0.00864
-0.1516
0.328
0.391
0.6045
0.493
0.4094
0.3542
0.2429
0.3623
0.3845
0.3796
0.6514
0.544
0.5356
0.3916
0.2598
0.1356
0.003359
-0.02023
0.003672
0.0003586
0.0
-3.16e-06
0.017
0.1705
-0.1882
-0.5645
-0.371
0.07666
0.766
0.699
0.5396
0.3452
0.2214
0.29
0.11346
0.2617
0.434
0.428
0.3767
0.257
0.1311
0.0977
0.04645
0.0213
-0.0246
-0.02849
0.0003848
4.22e-05
0.0
0.0
0.012405
0.1271
0.1534
-0.10693
0.2783
0.592
0.849
0.6777
0.5327
0.3286
0.1353
0.301
-0.01813
0.1461
0.2705
0.3125
0.2186
0.063
0.005836
-0.02249
0.00751
-0.002829
-0.002583
-0.003689
-0.0
0.0
0.0
0.0
0.0008163
0.003788
0.2463
0.6323
0.6475
0.3574
0.3025
0.3735
0.2827
0.251
0.1626
0.184
0.04144
0.0919
0.09845
0.195
0.04272
0.00754
-0.001535
0.00506
0.004814
-0.01278
-0.0013685
-2e-07
1.13e-06
0.0
0.0
0.0
0.0
0.0123
0.0548
0.08484
0.0173
0.009155
0.0188
0.0563
0.10187
0.0736
0.067
0.0872
0.01997
0.01865
-0.02614
-0.05322
-0.10095
-0.0864
-0.08
-0.00823
-0.005775
-0.0317
-0.0002384
-2e-07
0.0
0.0
0.0
0.0
0.0
0.0
0.02374
0.0324
7.67e-05
0.000654
0.002876
0.0006227
0.002338
-0.04547
-0.06305
0.004276
0.000254
0.00739
0.002525
0.002382
-0.0589
-0.02542
-1.585e-05
0.0
0.0
0.0
0.0
0.0
0.0
0.0
0.0
0.0
0.0
0.0
0.0
0.0
0.0
-3.76e-06
0.0005703
0.00283
0.003302
0.000354
1.85e-06
9.53e-05
0.01097
0.003643
0.000288
0.0
0.0106
1.36e-05
0.0
5.01e-05
4.86e-05
0.0
0.0
0.0
0.0
0.0
0.0
0.0
0.0
0.0
2.5e-06
0.0
-0.0009484
-0.04602
0.01186
0.02744
0.03455
0.05026
0.0624
0.03314
-0.01941
-0.0539
-0.003098
-0.00748
0.0001067
0.013504
0.003683
-0.00589
-0.000167
0.0
0.0
0.0
0.0
0.0
0.0
0.0
5.4e-07
0.0001191
0.0004406
-0.0001733
0.007603
-0.03745
-0.005608
0.00775
0.06104
0.1443
0.1405
0.1182
0.02257
-0.1007
-0.1923
-0.3574
-0.1532
0.01373
-0.03873
-0.0626
-0.146
-0.05798
0.0392
-0.0003664
0.0
0.0
0.0
0.0
0.003555
0.008286
0.01195
0.02151
0.11383
0.08215
-0.04312
0.1467
0.1967
0.1885
0.3345
0.32
0.1301
-0.2527
-0.517
-0.8467
-1.09
-0.909
-0.816
-0.671
-0.6685
-0.3154
-0.03613
-0.010574
-0.001623
0.0
0.0
-1.7e-06
0.001227
-0.02226
-0.03378
-0.0941
-0.04272
-0.009895
-0.1832
0.01674
0.3235
0.508
1.001
0.5884
-0.3213
-0.3657
-0.1782
-0.5054
-0.6406
-0.7246
-1.168
-1.026
-0.971
-0.636
-0.2041
-0.09436
-0.01561
9.1e-06
0.0
-6.26e-06
-0.0003133
-0.07874
-0.2361
-0.251
-0.0697
-0.03217
-0.502
-0.0769
0.2966
0.787
1.11
0.1707
-0.612
-0.4473
0.0758
0.02113
-0.3381
-0.575
-0.1462
0.07245
-0.02245
-0.3386
-0.5376
-0.10864
-0.008736
0.000235
0.0
-0.0001332
-0.00365
-0.1116
-0.2302
-0.6875
-0.1766
0.05692
0.353
0.1025
-0.005985
1.304
0.6147
-0.6543
-0.742
-0.599
-0.545
-0.5757
-0.651
-0.2341
-0.1321
0.4863
0.492
-0.1322
-0.547
-0.2593
0.01866
0.011444
0.0
0.001607
0.02266
-0.1194
-0.3784
-0.8423
0.005688
0.3723
0.699
-0.0972
0.2328
1.655
0.1451
-0.1854
-0.3591
-0.4268
-0.7656
-0.7773
-0.1222
0.1595
-0.6216
-0.02173
0.2935
-0.2288
-0.62
-0.4348
0.0849
0.0654
0.0
0.01377
-0.01842
-0.2264
-0.5425
-1.013
-0.2141
-0.221
0.1788
0.127
0.859
1.768
-0.613
-0.4316
-0.3132
0.0258
0.1957
-0.10394
-0.06647
0.8477
-0.4607
0.11273
0.4155
-0.2688
-0.7373
-0.4202
0.2411
0.0656
0.0
0.003605
-0.04388
-0.4368
-0.5747
-1.082
-0.373
0.1212
0.2135
-0.02759
1.015
0.723
-0.2235
-0.6973
-0.2233
-0.769
-0.815
0.4
0.04953
0.4583
0.351
0.509
-0.1009
-0.308
-0.705
-0.27
0.3826
0.02048
0.0
-0.003128
-0.0555
-0.3694
-0.3218
-0.9355
-0.05225
0.5034
-0.0981
1.004
0.9004
0.703
-0.869
-0.6304
-0.01037
-0.9272
0.327
-0.0982
0.281
-0.4822
0.1718
0.4026
-0.3447
0.3474
-1.121
-0.4517
0.555
0.06836
0.0
0.0663
-0.04517
-0.252
0.0858
-0.6387
-0.3062
0.2869
0.01907
1.003
1.554
0.9604
-1.045
-0.0608
-0.71
-0.932
0.03647
-0.2805
0.6514
0.1214
-0.4485
0.0789
0.358
0.3997
-0.6445
-0.2041
0.6475
0.02948
4.65e-06
0.1431
-0.02026
-0.1365
-0.2129
-0.2542
0.2474
1.304
0.458
0.2189
0.4993
0.3794
-1.123
-0.7554
-1.021
-0.92
-0.3972
0.0747
-0.565
0.4656
0.3914
-0.2294
0.3022
0.605
-0.4316
0.2786
0.4993
0.0847
6.23e-05
0.05847
-0.1146
-0.8384
-0.469
0.2306
0.3806
0.821
0.7256
0.604
0.6963
0.867
-0.916
-1.304
-0.491
-0.4192
-0.9507
-0.2854
-0.4124
-0.10187
-0.2461
-0.1021
0.5635
0.5864
-0.2354
0.04358
0.528
0.09064
5.794e-05
0.003918
-0.3225
-0.817
0.0155
0.1766
0.1482
0.4216
0.9697
1.204
0.811
1.086
0.1465
-0.414
0.0488
-0.634
-1.283
-0.748
-1.39
-0.3877
-0.5146
-0.566
0.5234
0.6206
-0.11145
0.1067
0.828
0.1434
2.44e-06
-0.0005903
-0.3286
-0.4705
0.4407
-0.2418
1.269
0.9946
0.8257
0.3801
0.1118
0.01886
-0.05356
-0.1938
0.003727
-0.05222
-0.5156
-0.78
-0.3174
-0.1014
-0.298
-0.815
0.427
0.691
0.357
-0.05807
0.6177
0.03406
0.0
-0.0011425
-0.357
-0.814
-0.10785
-0.2122
0.3503
0.8945
1.195
0.1449
0.8423
-0.4365
-0.563
0.8135
-0.2139
-0.9097
-0.59
-0.1086
-1.207
-0.689
-0.0858
-0.8804
-0.1614
0.762
0.127
0.09674
0.6562
0.01897
0.0
-0.01775
-0.3928
-0.82
-0.33
-0.1661
0.7163
0.8984
0.6313
0.9893
0.3416
-0.3574
0.4395
0.1713
-0.2996
-0.3857
-0.2585
-0.5234
-0.1534
-0.3738
-0.2744
-1.061
0.1362
0.8896
0.5503
0.4849
0.644
0.02603
0.0
-0.01782
-0.268
-0.9414
-0.959
0.01625
0.4644
0.6777
0.561
0.2028
0.389
-0.1536
-0.2974
0.2825
-0.1165
0.3093
-0.2389
-0.9775
-0.7466
-0.2996
-0.8374
-0.9224
-0.1317
0.2788
0.6963
0.8184
0.5703
0.03198
0.0
-0.005665
-0.1758
-0.3535
-0.2915
-0.3564
0.557
0.5
0.3562
0.5347
0.252
0.10114
0.5854
0.765
-0.81
-0.3047
-0.4768
-0.631
-0.2336
-0.3835
-0.2212
-0.7866
-0.7803
-0.3103
1.072
0.9824
0.3584
0.007034
0.0
-0.003056
-0.0804
-0.1626
-0.3682
0.02293
0.0764
0.6035
0.1792
0.1362
0.454
0.1909
0.753
0.1738
-0.02313
0.2734
-0.5513
-0.783
-0.705
-0.6055
-0.439
-0.3203
-0.9307
-0.01292
1.127
0.741
0.2896
0.006184
0.0
-0.000792
-0.07117
-0.2583
-0.08496
0.2361
0.479
1.07
0.7314
0.1035
0.2957
0.075
0.6763
0.3015
0.3203
0.09344
-0.694
-0.5454
-0.725
-1.303
-0.9927
-0.511
-0.3062
0.4263
0.969
0.4524
0.222
0.03244
0.0
0.0001749
-0.04526
-0.256
-0.2008
-0.1385
-0.1226
0.085
-0.1066
0.1902
1.122
0.647
0.7227
0.005844
-0.3691
0.3037
0.192
0.393
-0.1611
-0.2966
-0.5234
-0.8276
-0.2493
0.4692
0.644
0.1556
0.06396
0.02007
0.0
3.14e-05
-0.00967
-0.06964
-0.524
-0.4587
-0.1262
0.3494
0.6904
1.07
1.463
0.747
0.4517
-0.2219
-0.06805
0.1526
0.0681
0.1066
-0.732
-0.3333
-0.6533
-0.6357
-0.1816
0.2927
0.4211
0.0389
-0.003763
0.0001439
0.0
0.0
-0.013695
0.00962
-0.1455
-0.2905
-0.4587
-0.0932
0.1575
0.3347
0.2128
0.4321
-0.167
-0.5845
-0.0248
0.3894
-0.2703
-0.10846
-0.615
-0.407
-0.1836
-0.2445
-0.04413
0.1362
0.04752
0.02435
-0.0002134
0.0
0.0
0.0
-0.01023
0.013
0.01146
-0.0409
-0.2438
-0.4312
-0.6084
-0.7207
-0.2861
0.1969
0.2471
-0.09247
-0.1575
-0.2947
-0.7266
-0.68
-0.4858
-0.1398
-0.08685
-0.1508
-0.01503
-0.03687
-0.09515
-0.01004
3.9e-06
0.0
0.0
0.0
0.0
-0.001331
0.04877
0.0601
-0.06042
-0.2612
-0.1454
-0.010086
0.01573
0.11835
0.2031
-0.011955
-0.01595
-0.0896
-0.0956
-0.10864
-0.02983
-0.1096
-0.0833
-0.04218
-0.00294
-0.002512
-0.01802
-0.01906
0.0
0.0
0.0
0.0
0.0
0.0
0.015076
0.00893
0.003845
0.00322
-0.01157
-0.01921
-0.0003402
0.0002122
0.0045
-0.04337
0.0006204
-0.008965
0.07263
0.005783
0.01101
0.001582
0.000415
1.67e-06
3.04e-06
0.0
0.0
0.0
0.0
0.0
0.0
0.0
0.0
0.0
0.0
0.0
0.0
-1.48e-05
0.003332
-0.0001633
-0.0001844
4.49e-05
-4.05e-05
-3.743e-05
-0.02087
-0.006836
7.3e-06
0.0
-1.585e-05
1.55e-06
0.0
-0.000134
-0.0001297
0.0
0.0
0.0
0.0
0.0
0.0
0.0
0.0
0.0
1.25e-06
0.0
0.0001346
0.006844
-0.006935
0.0002692
-0.000615
0.003933
0.000239
0.0001937
0.03357
0.05148
0.02783
0.007767
0.0002618
0.00414
0.01004
0.0004864
-1.12e-05
0.0
0.0
0.0
0.0
0.0
0.0
0.0
-0.0003378
-0.000689
0.001191
-0.00708
0.03027
-0.02454
0.1177
0.0344
-0.02582
0.001423
-0.001589
0.002354
0.01124
0.05106
0.2245
0.23
0.10846
0.0817
-0.02711
-0.1138
-0.07184
0.0197
-0.02278
0.0009317
0.0
0.0
0.0
0.0
-0.0003576
-0.00318
0.03079
-0.00484
0.04068
0.2195
0.3936
0.3857
0.361
0.3447
0.11615
0.0698
0.04187
0.1559
0.2617
0.3638
0.534
0.4434
-0.03098
-0.25
-0.05334
0.1382
0.10046
0.002325
0.0003014
0.0
0.0
-4.065e-05
4.43e-05
-0.004654
0.1242
0.0573
-0.03238
0.1586
0.3079
-0.2041
0.3298
0.318
0.3662
0.5776
0.725
0.5415
0.2389
-0.1166
-0.1917
-0.03012
-0.4062
-0.061
-0.303
-0.1205
0.2593
0.1277
0.01516
1.7e-06
0.0
-0.0006204
-0.002348
0.02309
0.3298
0.394
-0.1138
0.4841
0.1855
0.05063
0.1345
-0.048
0.436
1.165
1.252
0.2148
-0.3792
-0.4011
-0.3176
0.2817
-0.042
-0.1713
-0.4646
-0.5166
0.1285
0.289
0.01968
-1.59e-05
0.0
-0.03265
-0.0629
-0.1423
0.2079
0.1361
0.1677
0.4448
0.8438
0.519
-0.3716
-0.0525
0.723
1.704
1.183
-0.02524
-0.75
-1.133
-0.4385
0.2152
-0.12177
0.4788
-0.12445
-0.793
0.01805
0.4268
-0.008
-0.000404
0.0
-0.0766
-0.1709
-0.2389
0.2203
0.01839
0.04996
-0.1167
0.4
0.3198
0.001014
0.6973
1.5205
2.309
0.4343
0.1058
-0.03009
-0.03717
-0.128
-0.392
-0.5645
0.3398
-0.4785
-0.986
0.02654
0.5806
-0.0009456
-0.001492
0.0
-0.03677
-0.3394
-0.4526
0.3933
-0.4583
0.05646
-0.2296
-0.2255
-0.288
-0.11993
0.4426
0.997
1.564
-0.4392
-0.4456
0.5884
0.477
0.2013
0.03065
-0.607
-0.4583
-0.4744
-0.4407
0.2452
0.7295
0.019
-0.0022
0.0
-0.10724
-0.519
-0.6694
0.1719
-0.392
-0.01753
0.3093
0.0204
0.08997
-0.06143
0.485
1.609
0.65
-0.3662
-0.53
-0.5034
-0.74
-0.04318
-0.2249
-0.1287
-0.3516
-0.3088
-0.4087
0.1501
0.5522
-0.00423
-0.003103
0.0
-0.1007
-0.9795
-0.876
-0.09937
-0.04626
0.3933
-0.3516
0.2568
0.3018
0.0985
0.8716
1.765
1.04
-0.3245
0.1825
-0.866
-1.031
-0.3
-0.5522
-0.3452
-0.3784
-0.2893
0.05176
0.525
0.4436
0.0006647
-0.0209
0.0
-0.227
-1.262
-0.613
0.6953
0.174
0.05637
-0.04376
-0.1927
0.05783
-0.3564
1.457
1.783
0.4712
0.1082
-0.2047
-0.8857
-0.8237
0.03552
-1.416
-0.758
-0.3054
0.2257
-0.04858
0.1776
0.1385
-0.09
0.0003479
-0.009766
-0.3125
-1.225
-0.5933
-0.1559
-0.522
-0.2004
-0.38
-0.04074
0.1866
-0.1945
1.705
0.999
-0.03528
0.51
0.3923
-0.0524
-0.5903
-0.917
-0.921
-0.682
-0.381
-0.11707
-0.432
-0.4482
-0.2659
-0.0857
-0.00273
-0.02098
-0.05396
-0.7363
-0.2573
0.4316
0.01837
0.661
0.306
-0.1414
-0.266
0.2363
1.928
1.135
-0.1519
-0.409
-0.3096
-0.974
-0.1885
-1.017
-1.274
-0.733
0.2433
0.613
0.07605
0.062
0.08826
0.04968
-0.002995
0.000452
0.0615
-0.3132
0.06824
0.1348
-0.1984
-0.3584
-0.3596
0.06964
-0.1282
0.6704
1.746
0.5234
-1.023
-0.8193
-0.81
-1.116
-0.6045
-1.166
-0.9497
-0.279
-0.3643
-0.109
0.347
-0.006725
0.2686
-0.012314
-0.00675
1.884e-05
-0.01144
-0.3633
0.007904
0.2754
0.3875
0.3093
-0.1942
-0.4146
-0.1575
1.42
1.756
0.85
-0.5776
-0.6406
0.3174
0.1838
0.1423
-0.03683
-0.3484
-0.385
-0.7188
0.1292
-0.2002
-0.1492
0.1292
0.05722
-0.002779
0.0
-0.01289
-0.707
-0.2164
0.4521
0.441
0.03366
0.2213
0.4526
0.1158
1.2705
1.238
0.7964
-0.1641
-0.4236
-0.4412
0.1328
0.1593
-0.4268
-0.2935
-0.803
-0.1892
-0.2615
-0.1926
0.06494
0.2002
-0.06494
-0.001685
0.0
-0.013336
-0.577
0.1794
-0.1831
0.55
-0.418
0.1655
0.3347
0.8975
1.469
1.782
0.5835
-0.4517
1.007
-0.1043
-0.2512
0.02887
-0.3042
-0.047
0.6025
-0.699
-0.01426
-0.3848
-0.2397
0.2461
-0.0743
0.001277
0.0
-0.014725
-0.4722
-0.0229
-0.65
0.03235
-0.02357
-0.243
0.636
0.9062
2.053
1.125
-0.1664
-0.2292
0.5703
-0.245
-0.4062
0.4668
-0.625
-0.532
-0.147
-0.302
-0.409
-0.0725
0.1251
0.2966
0.03017
0.005783
0.0
-0.01808
-0.382
-0.0668
-0.2703
-0.1267
0.3591
-0.3271
-0.312
1.899
1.94
0.4119
-0.2201
0.267
0.4917
0.2524
-0.2449
0.2115
-0.2822
-0.2267
-0.1743
0.0563
-0.2688
0.06854
0.1951
0.1309
0.0889
0.001701
0.0
-0.02428
-0.1914
-0.4429
-0.2563
-0.1683
0.001938
0.0802
0.1571
1.77
2.34
0.501
-0.6724
0.2625
-0.2338
-0.04092
-0.1808
-0.714
0.10474
0.4263
-0.0692
0.06055
-0.4878
-0.557
-0.2659
-0.0572
0.10956
0.004642
0.0
-0.02232
-0.10443
-0.2988
-0.1396
-0.4421
0.1569
-0.2233
0.2983
2.23
3.148
0.2057
-0.589
-0.2766
-0.6665
-0.715
0.0409
-0.2158
0.1848
-0.436
-0.5767
-0.5693
-0.3896
-0.5396
-0.437
-0.00509
0.07367
0.002499
0.0
-0.01563
-0.06323
-0.2369
-0.1076
-0.4438
0.09283
-0.4365
0.299
1.842
2.766
1.301
0.4307
-0.0355
-0.698
0.2903
0.414
0.2778
0.3281
-0.2021
-0.495
-0.8506
-0.6465
-0.3691
-0.2461
0.05984
0.019
0.010155
0.0
-0.001077
-0.02586
-0.02411
-0.2225
-0.10126
-0.03198
0.3816
0.578
1.808
2.316
1.011
0.3914
-0.04245
0.1453
0.228
-0.0697
0.04572
-0.1333
-0.7246
-1.13
-1.303
-0.3713
0.00797
0.06213
0.03143
0.0002754
-6.5e-05
0.0
0.0
-0.00276
0.00807
0.00991
-0.0954
-0.4028
-0.3894
0.4001
1.538
1.837
1.364
0.385
-0.2291
-0.1873
-0.7583
-0.6587
-0.3228
-0.6543
-0.881
-0.8125
-0.655
-0.2515
-0.1225
-0.1998
-0.02776
1.067e-05
0.0
0.0
0.0
-0.001876
-0.0045
0.0775
0.3167
-0.1831
-0.5464
-0.354
0.1467
0.4553
0.507
0.1915
-0.05353
-0.2563
-0.4424
-0.575
-0.4744
-0.414
-0.437
-0.4504
-0.3367
-0.09204
-0.05017
-0.09393
-0.01435
4.53e-05
0.0
0.0
0.0
0.0
0.000423
0.005527
0.06555
-0.0977
-0.1514
-0.1131
-0.085
-0.06793
0.116
0.1163
-0.03023
-0.1407
-0.1324
-0.2079
-0.06647
0.01248
-0.01955
-0.04926
-0.0514
-0.0006666
-0.004997
-0.0163
-0.01714
0.0
0.0
0.0
0.0
0.0
0.0
0.01525
0.01544
-0.0084
0.002594
0.003075
-0.01889
0.006187
-0.00952
-0.02426
-0.03934
-0.0101
-0.06836
0.01682
-0.001874
-0.04205
-0.0199
-0.0004716
6e-07
1.13e-06
0.0
0.0
0.0
0.0
0.0
